//
// Created by Krystian on 12.05.2025.
//

#ifndef CONSTANTS_CUH
#define CONSTANTS_CUH

    #define BLOCK_SIZE 256
    #define MIN_NODES 2
    #define MAX_NODES 16

    constexpr double nodes_data[17][16] = {
        {},
        { 0.0 },
        { -0.5773502692, 0.5773502692 },
        { -0.7745966692, 0.0, 0.7745966692 },
        { -0.8611363116, -0.3399810436, 0.3399810436, 0.8611363116 },
        { -0.9061798459, -0.5384693101, 0.0, 0.5384693101, 0.9061798459 },
        { -0.9324695142, -0.6612093865, -0.2386191861,
        0.2386191861, 0.6612093865, 0.9324695142 },
        { -0.9491079123, -0.7415311856, -0.4058451514, 0.0,
        0.4058451514, 0.7415311856, 0.9491079123 },
        { -0.9602898565, -0.7966664774, -0.5255324099, -0.1834346425,
        0.1834346425, 0.5255324099, 0.7966664774, 0.9602898565 },
        { -0.9681602395, -0.8360311073, -0.6133714327, -0.3242534234, 0.0,
        0.3242534234, 0.6133714327, 0.8360311073, 0.9681602395 },
        { -0.9739065285, -0.8650633666, -0.6794095682, -0.4333953941, -0.1488743390,
        0.1488743390, 0.4333953941, 0.6794095682, 0.8650633666, 0.9739065285 },
        { -0.9782286581, -0.8870625998, -0.7301520056, -0.5190961292, -0.2695431559, 0.0,
        0.2695431559, 0.5190961292, 0.7301520056, 0.8870625998, 0.9782286581 },
        { -0.9815606342, -0.9041172563, -0.7699026742, -0.5873179542, -0.3678314989, -0.1252334085,
        0.1252334085, 0.3678314989, 0.5873179542, 0.7699026742, 0.9041172563, 0.9815606342 },
        { -0.9841830547, -0.9175983992, -0.8015780907, -0.6423493394, -0.4484927510, -0.2304583159, 0.0,
        0.2304583159, 0.4484927510, 0.6423493394, 0.8015780907, 0.9175983992, 0.9841830547 },
        { -0.9862838087, -0.9284348837, -0.8272013151, -0.6872929048, -0.5152486364, -0.3191123689, -0.1080549487,
        0.1080549487, 0.3191123689, 0.5152486364, 0.6872929048, 0.8272013151, 0.9284348837, 0.9862838087 },
        { -0.9879925180, -0.9372733924, -0.8482065834, -0.7244177313, -0.5709721726, -0.3941513471, -0.2011940939, 0.0,
        0.2011940939, 0.3941513471, 0.5709721726, 0.7244177313, 0.8482065834, 0.9372733924, 0.9879925180 },
        { -0.9894009349, -0.9445750230, -0.8656312023, -0.7554044083, -0.6178762444, -0.4580167776, -0.2816035507, -0.0950125098,
        0.0950125098, 0.2816035507, 0.4580167776, 0.6178762444, 0.7554044083, 0.8656312023, 0.9445750230, 0.9894009349 }
    };

    constexpr double weights_data[17][16] = {
        {},
        { 2.0 },
        { 1.0, 1.0 },
        { 0.5555555556, 0.8888888889, 0.5555555556 },
        { 0.3478548451, 0.6521451549, 0.6521451549, 0.3478548451 },
        { 0.2369268851, 0.4786286705, 0.5688888889, 0.4786286705, 0.2369268851 },
        { 0.1713244924, 0.3607615730, 0.4679139346, 0.4679139346, 0.3607615730, 0.1713244924 },
        { 0.1294849662, 0.2797053915, 0.3818300505, 0.4179591837, 0.3818300505, 0.2797053915, 0.1294849662 },
        { 0.1012285363, 0.2223810345, 0.3137066459, 0.3626837834,
        0.3626837834, 0.3137066459, 0.2223810345, 0.1012285363 },
        { 0.0812743884, 0.1806481607, 0.2606106964, 0.3123470770, 0.3302393550,
        0.3123470770, 0.2606106964, 0.1806481607, 0.0812743884 },
        { 0.0666713443, 0.1494513491, 0.2190863625, 0.2692667193, 0.2955242247,
        0.2955242247, 0.2692667193, 0.2190863625, 0.1494513491, 0.0666713443 },
        { 0.0556685671, 0.1255803695, 0.1862902109, 0.2331937646, 0.2628045445, 0.2729250868,
        0.2628045445, 0.2331937646, 0.1862902109, 0.1255803695, 0.0556685671 },
        { 0.0471753364, 0.1069393259, 0.1600783285, 0.2031674267, 0.2334925365, 0.2491470458,
        0.2491470458, 0.2334925365, 0.2031674267, 0.1600783285, 0.1069393259, 0.0471753364 },
        { 0.0404840048, 0.0921214998, 0.1388735102, 0.1781459808, 0.2078160475, 0.2262831803, 0.2325515532,
        0.2262831803, 0.2078160475, 0.1781459808, 0.1388735102, 0.0921214998, 0.0404840048 },
        { 0.0351194603, 0.0801580872, 0.1215185707, 0.1572031672, 0.1855383975, 0.2051984637, 0.2152638535,
        0.2152638535, 0.2051984637, 0.1855383975, 0.1572031672, 0.1215185707, 0.0801580872, 0.0351194603 },
        { 0.0307532419, 0.0703660475, 0.1071592205, 0.1395706779, 0.1662692058, 0.1861610000, 0.1984314853, 0.2025782419,
        0.1984314853, 0.1861610000, 0.1662692058, 0.1395706779, 0.1071592205, 0.0703660475, 0.0307532419 },
        { 0.0271524594, 0.0622535239, 0.0951585116, 0.1246289712, 0.1495959888, 0.1691565193, 0.1826034150, 0.1894506104,
        0.1894506104, 0.182603415044, 0.1691565193, 0.1495959888, 0.1246289712, 0.0951585116, 0.0622535239, 0.0271524594 }
    };


#endif //CONSTANTS_CUH
