//
// Created by Krystian on 12.05.2025.
//

#ifndef CONSTANTS_CUH
#define CONSTANTS_CUH

    #define BLOCK_SIZE 256
    #define MIN_NODES 2
    #define MAX_NODES 16

    constexpr double nodes_data[17][16] = {
        {},
        { 0.0f },
        { -0.5773502692f, 0.5773502692f },
        { -0.7745966692f, 0.0f, 0.7745966692f },
        { -0.8611363116f, -0.3399810436f, 0.3399810436f, 0.8611363116f },
        { -0.9061798459f, -0.5384693101f, 0.0f, 0.5384693101f, 0.9061798459f },
        { -0.9324695142f, -0.6612093865f, -0.2386191861f,
        0.2386191861f, 0.6612093865f, 0.9324695142f },
        { -0.9491079123f, -0.7415311856f, -0.4058451514f, 0.0f,
        0.4058451514f, 0.7415311856f, 0.9491079123f },
        { -0.9602898565f, -0.7966664774f, -0.5255324099f, -0.1834346425f,
        0.1834346425f, 0.5255324099f, 0.7966664774f, 0.9602898565f },
        { -0.9681602395f, -0.8360311073f, -0.6133714327f, -0.3242534234f, 0.0f,
        0.3242534234f, 0.6133714327f, 0.8360311073f, 0.9681602395f },
        { -0.9739065285f, -0.8650633666f, -0.6794095682f, -0.4333953941f, -0.1488743390f,
        0.1488743390f, 0.4333953941f, 0.6794095682f, 0.8650633666f, 0.9739065285f },
        { -0.9782286581f, -0.8870625998f, -0.7301520056f, -0.5190961292f, -0.2695431559f, 0.0f,
        0.2695431559f, 0.5190961292f, 0.7301520056f, 0.8870625998f, 0.9782286581f },
        { -0.9815606342f, -0.9041172563f, -0.7699026742f, -0.5873179542f, -0.3678314989f, -0.1252334085f,
        0.1252334085f, 0.3678314989f, 0.5873179542f, 0.7699026742f, 0.9041172563f, 0.9815606342f },
        { -0.9841830547f, -0.9175983992f, -0.8015780907f, -0.6423493394f, -0.4484927510f, -0.2304583159f, 0.0f,
        0.2304583159f, 0.4484927510f, 0.6423493394f, 0.8015780907f, 0.9175983992f, 0.9841830547f },
        { -0.9862838087f, -0.9284348837f, -0.8272013151f, -0.6872929048f, -0.5152486364f, -0.3191123689f, -0.1080549487f,
        0.1080549487f, 0.3191123689f, 0.5152486364f, 0.6872929048f, 0.8272013151f, 0.9284348837f, 0.9862838087f },
        { -0.9879925180f, -0.9372733924f, -0.8482065834f, -0.7244177313f, -0.5709721726f, -0.3941513471f, -0.2011940939f, 0.0f,
        0.2011940939f, 0.3941513471f, 0.5709721726f, 0.7244177313f, 0.8482065834f, 0.9372733924f, 0.9879925180f },
        { -0.9894009349f, -0.9445750230f, -0.8656312023f, -0.7554044083f, -0.6178762444f, -0.4580167776f, -0.2816035507f, -0.0950125098f,
        0.0950125098f, 0.2816035507f, 0.4580167776f, 0.6178762444f, 0.7554044083f, 0.8656312023f, 0.9445750230f, 0.9894009349f }
    };

    constexpr double weights_data[17][16] = {
        {},
        { 2.0f },
        { 1.0f, 1.0f },
        { 0.5555555556f, 0.8888888889f, 0.5555555556f },
        { 0.3478548451f, 0.6521451549f, 0.6521451549f, 0.3478548451f },
        { 0.2369268851f, 0.4786286705f, 0.5688888889f, 0.4786286705f, 0.2369268851f },
        { 0.1713244924f, 0.3607615730f, 0.4679139346f, 0.4679139346f, 0.3607615730f, 0.1713244924f },
        { 0.1294849662f, 0.2797053915f, 0.3818300505f, 0.4179591837f, 0.3818300505f, 0.2797053915f, 0.1294849662f },
        { 0.1012285363f, 0.2223810345f, 0.3137066459f, 0.3626837834f,
        0.3626837834f, 0.3137066459f, 0.2223810345f, 0.1012285363f },
        { 0.0812743884f, 0.1806481607f, 0.2606106964f, 0.3123470770f, 0.3302393550f,
        0.3123470770f, 0.2606106964f, 0.1806481607f, 0.0812743884f },
        { 0.0666713443f, 0.1494513491f, 0.2190863625f, 0.2692667193f, 0.2955242247f,
        0.2955242247f, 0.2692667193f, 0.2190863625f, 0.1494513491f, 0.0666713443f },
        { 0.0556685671f, 0.1255803695f, 0.1862902109f, 0.2331937646f, 0.2628045445f, 0.2729250868f,
        0.2628045445f, 0.2331937646f, 0.1862902109f, 0.1255803695f, 0.0556685671f },
        { 0.0471753364f, 0.1069393259f, 0.1600783285f, 0.2031674267f, 0.2334925365f, 0.2491470458f,
        0.2491470458f, 0.2334925365f, 0.2031674267f, 0.1600783285f, 0.1069393259f, 0.0471753364f },
        { 0.0404840048f, 0.0921214998f, 0.1388735102f, 0.1781459808f, 0.2078160475f, 0.2262831803f, 0.2325515532f,
        0.2262831803f, 0.2078160475f, 0.1781459808f, 0.1388735102f, 0.0921214998f, 0.0404840048f },
        { 0.0351194603f, 0.0801580872f, 0.1215185707f, 0.1572031672f, 0.1855383975f, 0.2051984637f, 0.2152638535f,
        0.2152638535f, 0.2051984637f, 0.1855383975f, 0.1572031672f, 0.1215185707f, 0.0801580872f, 0.0351194603f },
        { 0.0307532419f, 0.0703660475f, 0.1071592205f, 0.1395706779f, 0.1662692058f, 0.1861610000f, 0.1984314853f, 0.2025782419f,
        0.1984314853f, 0.1861610000f, 0.1662692058f, 0.1395706779f, 0.1071592205f, 0.0703660475f, 0.0307532419f },
        { 0.0271524594f, 0.0622535239f, 0.0951585116f, 0.1246289712f, 0.1495959888f, 0.1691565193f, 0.1826034150f, 0.1894506104f,
        0.1894506104f, 0.182603415044f, 0.1691565193f, 0.1495959888f, 0.1246289712f, 0.0951585116f, 0.0622535239f, 0.0271524594f }
    };


#endif //CONSTANTS_CUH
